<?xml version="1.0"?>
<opencv_storage>
<stage10>
  <maxWeakCount>5</maxWeakCount>
  <stageThreshold>-1.3242634534835815e+00</stageThreshold>
  <weakClassifiers>
    <_>
      <internalNodes>
        0 -1 3024388 -6.2519502534996718e-05</internalNodes>
      <leafValues>
        3.1851851940155029e-01 -8.6486488580703735e-01</leafValues></_>
    <_>
      <internalNodes>
        0 -1 1157537 -1.2503182888031006e-01</internalNodes>
      <leafValues>
        5.9584414958953857e-01 -6.0961937904357910e-01</leafValues></_>
    <_>
      <internalNodes>
        0 -1 114789 2.3868568241596222e-03</internalNodes>
      <leafValues>
        -6.0239672660827637e-01 4.8752212524414062e-01</leafValues></_>
    <_>
      <internalNodes>
        0 -1 3120 -8.5149111691862345e-04</internalNodes>
      <leafValues>
        3.4135434031486511e-01 -9.0515136718750000e-01</leafValues></_>
    <_>
      <internalNodes>
        0 -1 3018034 -3.0471514037344605e-05</internalNodes>
      <leafValues>
        4.1126319766044617e-01 -8.4039402008056641e-01</leafValues></_></weakClassifiers></stage10>
</opencv_storage>
